/*
model : SimpleRNN
input_size : 1
skip : 1
output_size : 1
unit_type : LSTM
num_layers : 1
hidden_size : 4
bias_fl : True
*/

float const rec_weight_ih_l0[] = {{-0.40859732031822205}, 
                                  { -0.2994958162307739}, 
                                  { -1.205723762512207}, 
                                  { 0.004180729389190674}, 
                                  { 0.3240227997303009}, 
                                  { -0.15424445271492004}, 
                                  { -1.603854775428772}, 
                                  { 0.2632805109024048}, 
                                  { 0.4495038688182831}, 
                                  { -1.1334184408187866}, 
                                  { -0.8224048018455505}, 
                                  { 5.223653316497803}, 
                                  { 1.6121869087219238}, 
                                  { -0.679532527923584}, 
                                  { -0.25211164355278015}, 
                                  { 0.10690157115459442}}; 

float const rec_weight_hh_l0[] = {{0.04963681846857071, -0.25277504324913025, 0.10926760733127594, 0.7901617288589478}, 
                                  { -0.7565931081771851, -0.9312542676925659, -1.1180447340011597, 0.4560006558895111}, 
                                  { -0.9195056557655334, 0.7695092558860779, -0.8108106851577759, 1.443317174911499}, 
                                  { 0.8282002806663513, 0.6504446864128113, -0.5704371929168701, -1.5406476259231567}, 
                                  { 0.759588360786438, 0.3715253174304962, 0.5797180533409119, -0.23294642567634583}, 
                                  { 1.0382938385009766, 0.3147668242454529, 0.440157026052475, -0.2740095853805542}, 
                                  { 0.33401772379875183, 0.06152934208512306, -0.18892185389995575, -0.27787354588508606}, 
                                  { -1.0321886539459229, 0.3888491690158844, 0.1165250763297081, 0.41261026263237}, 
                                  { 0.23236501216888428, 0.4998260736465454, 0.22192580997943878, -0.08123542368412018}, 
                                  { -0.0440249964594841, 0.3338300883769989, 0.3352970480918884, -0.1843814104795456}, 
                                  { 0.034167591482400894, -1.8850557804107666, -0.8274424076080322, 0.6712491512298584}, 
                                  { 0.35690993070602417, 1.9128310680389404, -1.4324264526367188, 1.5847492218017578}, 
                                  { 0.49258872866630554, 0.7026301622390747, -0.360474556684494, 0.07506465166807175}, 
                                  { 0.36150509119033813, -0.367004930973053, -0.8635169267654419, 0.6329077482223511}, 
                                  { 0.11654220521450043, 0.3140605092048645, 0.04027842730283737, 0.04964102804660797}, 
                                  { 1.0031307935714722, 1.2290605306625366, -1.1335771083831787, -0.8927658796310425}}; 

float const rec_bias_ih_l0[] = {0.05878579616546631, -0.6308156847953796, 0.39503103494644165, 1.4144452810287476, 0.3364830017089844, 1.027967929840088, 0.3479509949684143, -0.5025091171264648, 0.26776739954948425, -0.18134084343910217, 0.1710057407617569, 0.16962279379367828, 0.012739360332489014, 0.6674824357032776, 1.2880507707595825, 0.9094182848930359}; 

float const rec_bias_hh_l0[] = {-0.19129574298858643, -0.4464627206325531, 0.47541600465774536, 1.2613887786865234, 0.5516027808189392, 0.9437131881713867, 0.34322988986968994, -0.39146074652671814, -0.16890326142311096, 0.17396381497383118, 0.3726302683353424, -0.2608138918876648, 0.4486640393733978, 0.45024561882019043, 1.2887099981307983, 1.019371509552002}; 

float const lin_weight[] = {{-1.0720735788345337, 1.2480158805847168, 0.2723093628883362, -0.27655816078186035}}; 

float const lin_bias[] = {0.15313947200775146}; 

