{"model_data": {"model": "SimpleRNN", "input_size": 1, "skip": 1, "output_size": 1, "unit_type": "GRU", "num_layers": 1, "hidden_size": 4, "bias_fl": true}, "state_dict": {"rec.weight_ih_l0": [[-0.16722558438777924], [0.01975015178322792], [-0.13067777454853058], [-0.36868321895599365], [-0.14056400954723358], [-0.00028827268397435546], [0.09012904763221741], [-0.01467723399400711], [0.1328529715538025], [-1.7829099893569946], [1.2268108129501343], [-3.370378255844116]], "rec.weight_hh_l0": [[0.015003484673798084, -1.6720917224884033, -0.196049302816391, 0.897007167339325], [0.02133222483098507, -3.877852201461792, -2.629592180252075, -1.8613425493240356], [0.0575256422162056, 0.2898749113082886, 0.1637880951166153, -0.5671876668930054], [-0.16742177307605743, 0.4599815607070923, -0.13419963419437408, -0.005235107149928808], [-0.04948517307639122, -0.03882920742034912, 0.4669746160507202, 0.3942880928516388], [0.1994156390428543, 0.3572647273540497, 0.040901828557252884, -0.020123321563005447], [0.1750456690788269, 0.039592672139406204, -0.11651061475276947, 0.36148762702941895], [0.22521977126598358, 0.2901107966899872, 0.049648161977529526, 0.006366515997797251], [0.2453984171152115, 1.5080760717391968, 1.4504085779190063, 0.22859467566013336], [0.125674307346344, 1.8489139080047607, 2.012768268585205, 2.1636061668395996], [-0.019759593531489372, -0.48189863562583923, 0.22710643708705902, -0.8290667533874512], [-0.02061421424150467, -0.7208364605903625, 2.2931711673736572, -0.14464929699897766]], "rec.bias_ih_l0": [0.35958293080329895, 0.23855015635490417, 0.15554314851760864, 0.5386773943901062, 0.9612127542495728, -1.5589677095413208, 1.3907859325408936, -1.3022371530532837, 0.15707488358020782, 0.4005063772201538, -0.024402067065238953, 0.17498262226581573], "rec.bias_hh_l0": [0.5256650447845459, 0.1058599129319191, -0.1444644331932068, 0.5203583240509033, 0.9612132906913757, -1.5589677095413208, 1.400840401649475, -1.3022371530532837, -0.02608598582446575, -0.3783565163612366, -0.08976533263921738, -0.29260292649269104], "lin.weight": [[0.3130643367767334, 0.2206755131483078, -1.0869636535644531, 0.298419326543808]], "lin.bias": [0.05116382986307144]}}