{"model_data": {"model": "SimpleRNN", "input_size": 1, "skip": 1, "output_size": 1, "unit_type": "GRU", "num_layers": 1, "hidden_size": 8, "bias_fl": true}, "state_dict": {"rec.weight_ih_l0": [[-0.038877349346876144], [-0.034067850559949875], [0.523639440536499], [-0.01987539604306221], [0.0494096577167511], [0.5585161447525024], [-0.03997063264250755], [-0.299223929643631], [-0.17891031503677368], [-0.13369762897491455], [-0.020453520119190216], [0.06773147732019424], [0.00015205763338599354], [0.007954319939017296], [0.2387259155511856], [-0.05936512351036072], [0.8782712817192078], [0.5797595381736755], [1.6964385509490967], [-1.6140104532241821], [1.2330001592636108], [-2.744154930114746], [-0.20155751705169678], [0.9166248440742493]], "rec.weight_hh_l0": [[-0.29423534870147705, 0.1189643144607544, 0.4944440722465515, -0.11718305945396423, -0.10551690310239792, -0.1751241385936737, -0.005823658313602209, -0.275037944316864], [0.1458822339773178, -0.23378108441829681, -0.35896721482276917, 0.0018575103022158146, -0.255859375, 0.10642732679843903, -0.004176279529929161, -0.4811050593852997], [-0.3824240267276764, 0.14872440695762634, 1.4639239311218262, -0.9757381677627563, 1.0812042951583862, -1.590486764907837, 0.1083969846367836, 0.6250603795051575], [-0.08007390797138214, -0.29582372307777405, -1.0926461219787598, 0.06489307433366776, -0.4656224250793457, -0.048127494752407074, 0.16965937614440918, 0.10026998072862625], [0.17952704429626465, 0.3046106994152069, 0.19641415774822235, 0.012461437843739986, 0.16176319122314453, -0.023343641310930252, 0.3663831651210785, -0.049966540187597275], [-0.510347306728363, -0.5806558728218079, -0.09791310131549835, -0.19299156963825226, 0.8214240074157715, -0.27666911482810974, -0.24792888760566711, 0.2886950671672821], [-0.3609883785247803, 0.03603154793381691, 0.033479731529951096, -0.2574876844882965, 0.0821964368224144, -0.08592453598976135, 0.1310902088880539, -0.36029455065727234], [-0.31560391187667847, 0.7387582063674927, -2.2024426460266113, -0.08160469681024551, -1.134456992149353, 0.4576977491378784, 0.29121461510658264, -1.5483959913253784], [0.18305686116218567, 0.6211756467819214, -0.07907585799694061, 0.75834059715271, -0.06135516241192818, -0.5129919052124023, 0.19779397547245026, -0.5153864622116089], [-0.62052983045578, 0.18281061947345734, 0.30480390787124634, 0.1762908548116684, -0.02715533785521984, -0.2605375349521637, 0.619399905204773, 0.038336217403411865], [0.02513517625629902, -0.29745379090309143, -0.17323122918605804, -0.010698417201638222, 0.10489089787006378, 0.09476619213819504, -0.6364045143127441, 0.21087074279785156], [0.23331132531166077, 0.14452771842479706, -0.011198688298463821, 0.026837823912501335, 0.1598764955997467, 0.15345020592212677, -0.17628765106201172, 0.08319182693958282], [0.058972280472517014, -0.09149499982595444, -0.1508202999830246, -0.0799160748720169, 0.07865704596042633, 0.05344059318304062, -0.263680100440979, -0.030007414519786835], [0.07620101422071457, -0.03651433810591698, 1.7663653125055134e-05, 0.11426599323749542, 0.09880834817886353, 0.1341180056333542, -0.5486873388290405, 0.31853818893432617], [0.226800799369812, 0.3291064500808716, -0.5501097440719604, -0.4909307658672333, 0.487402081489563, 0.0916542112827301, -0.2595321238040924, -0.028468821197748184], [-0.19581663608551025, -0.5605863332748413, 0.020855071023106575, -0.17839990556240082, 0.2929886281490326, -0.0784071609377861, -0.6843137145042419, 0.14052656292915344], [0.9651924967765808, 0.46800366044044495, 0.37545183300971985, -0.4104611873626709, 0.5597022175788879, -0.4517858028411865, -0.08168705552816391, -0.09954184293746948], [0.02281312644481659, 0.30003172159194946, 0.7103099822998047, 0.0359521359205246, 0.04341321438550949, -0.3979286551475525, -0.2336607277393341, 0.6062618494033813], [-1.8191999197006226, 0.31519877910614014, 1.3759053945541382, -0.883029043674469, 0.06708560883998871, -2.1517107486724854, 0.3583705425262451, 0.49393412470817566], [0.7828443646430969, -0.43858960270881653, 1.230444073677063, -0.030382558703422546, 0.167064368724823, 0.4422931373119354, 0.4462599754333496, 0.5317111015319824], [0.2953953146934509, -0.14769846200942993, 0.6116787195205688, -0.919722855091095, 0.5290434956550598, -0.7005778551101685, -0.2488570362329483, 0.009622214362025261], [1.67298424243927, 0.4451825022697449, 0.31223824620246887, -0.42709043622016907, 0.4575665593147278, 0.19240820407867432, -0.2628554403781891, 0.21896976232528687], [0.851131021976471, 0.3874013423919678, -0.10697970539331436, 0.45091673731803894, -0.3058343827724457, -0.019874488934874535, 0.5648811459541321, -1.0753918886184692], [-0.9378735423088074, -0.34380221366882324, 1.2967402935028076, -0.763512134552002, 0.6385252475738525, -0.5569205284118652, -0.18687359988689423, 1.0590062141418457]], "rec.bias_ih_l0": [-0.170295849442482, 0.14104367792606354, 0.22050227224826813, 0.25504451990127563, 0.42299583554267883, 0.15783752501010895, 0.3723044991493225, 0.37770700454711914, 1.4150327444076538, 0.9591332674026489, -1.0980942249298096, -0.7796319127082825, -0.5627496838569641, -0.8856499195098877, 0.7335615754127502, -0.4620853364467621, -0.2790890336036682, 0.21880991756916046, -0.5385985970497131, 0.015514870174229145, 0.04998960345983505, 0.11133233457803726, 0.37697669863700867, -0.009862112812697887], "rec.bias_hh_l0": [0.12369990348815918, -0.14617615938186646, 0.3132989704608917, 0.10501429438591003, 0.34736961126327515, 0.0734231099486351, 0.3895016014575958, 0.4878652095794678, 1.52894926071167, 0.9627663493156433, -1.0980942249298096, -0.7796294689178467, -0.5627496838569641, -0.8856499195098877, 0.8064436912536621, -0.46201497316360474, 0.3042012155056, 0.1760084480047226, 0.254046231508255, -0.09207190573215485, -0.14041297137737274, -0.24332070350646973, -0.18309010565280914, -0.10383037477731705], "lin.weight": [[-0.59767085313797, -0.3050099015235901, -0.07164204865694046, 0.29883915185928345, -0.02753070928156376, 0.222337007522583, 0.27856194972991943, -0.293691486120224]], "lin.bias": [-0.17355385422706604]}}