{"model_data": {"model": "SimpleRNN", "input_size": 1, "skip": 1, "output_size": 1, "unit_type": "GRU", "num_layers": 1, "hidden_size": 7, "bias_fl": true}, "state_dict": {"rec.weight_ih_l0": [[-0.14920450747013092], [-0.25961729884147644], [0.12047041952610016], [-0.05256455019116402], [0.036633871495723724], [0.5456557273864746], [0.12307374179363251], [-0.016953421756625175], [0.2610606253147125], [0.1232185810804367], [0.020649343729019165], [-0.022517362609505653], [0.16897769272327423], [0.14818689227104187], [0.2134445309638977], [-0.286651074886322], [0.2537027597427368], [-0.011594315059483051], [1.343133568763733], [0.9051094055175781], [0.1152697205543518]], "rec.weight_hh_l0": [[0.05735047161579132, 0.271841824054718, -0.9227047562599182, 0.13665202260017395, 0.0004327573406044394, 0.5742905139923096, 0.06487303972244263], [-0.15204772353172302, 0.0847424641251564, 0.04379696398973465, 0.1132870763540268, -0.1169414073228836, -0.26711294054985046, -0.07597745954990387], [-0.052448950707912445, 0.3912869393825531, -0.07367773354053497, 0.03559643402695656, 0.1013692319393158, 0.07656452059745789, 0.07873968034982681], [0.08800707012414932, 0.16837234795093536, -0.0355270691215992, 0.05945267155766487, -0.023835988715291023, 0.05645941570401192, -0.11251617223024368], [-0.21072885394096375, 0.6770427823066711, 0.0626571923494339, 0.01818462647497654, -0.003340433817356825, -0.05891207233071327, -0.0033202592749148607], [-0.1473623365163803, 0.47758933901786804, 0.09663164615631104, -0.1775396317243576, 0.40046343207359314, 0.15513190627098083, 0.14961329102516174], [-0.15516526997089386, 0.18938344717025757, 0.07098424434661865, -0.16915734112262726, 0.024782810360193253, -0.3715841770172119, -0.2442278414964676], [0.020278826355934143, 0.039191633462905884, -0.012003123760223389, -0.16645517945289612, 0.09694227576255798, 0.10184390097856522, 0.07442054897546768], [-0.013873676769435406, 0.20068074762821198, -0.047893159091472626, -0.06756462901830673, -0.017791301012039185, -0.1659010499715805, -0.0075391605496406555], [0.12193171679973602, -0.3692066967487335, -0.08071540296077728, 0.0003657856141217053, 0.14935988187789917, 0.16730180382728577, 0.07559532672166824], [0.06615422666072845, -0.16690568625926971, -0.070685975253582, 0.02717982418835163, 0.019518790766596794, 0.07168715447187424, 0.13292796909809113], [0.18635937571525574, -0.35450541973114014, 0.005792105104774237, -0.04509418457746506, -0.02536723017692566, 0.022474007681012154, -0.0763830840587616], [0.05290776863694191, -0.42073142528533936, 0.17888101935386658, -0.1020963117480278, -0.01564398594200611, -0.03743164613842964, 0.020009063184261322], [-0.13671664893627167, 0.38047054409980774, 0.06213456392288208, -0.07608136534690857, -0.06780045479536057, -0.22353462874889374, -0.15811751782894135], [0.348084956407547, -0.004618997685611248, 1.24614417552948, -0.642145574092865, 0.08203575015068054, 0.08723165094852448, -0.17793768644332886], [0.17689399421215057, 0.2686968445777893, 0.157820463180542, -0.45614174008369446, -0.8011518120765686, 0.7327359318733215, 0.38535624742507935], [-0.12691490352153778, -0.2869999408721924, 2.1087372303009033, -0.25173789262771606, 0.12086451798677444, 2.944293737411499, 0.061750367283821106], [0.3758658468723297, 0.6562231183052063, -0.17543432116508484, -0.19958174228668213, -0.2854624390602112, -0.6178839802742004, 0.6418454647064209], [0.0917295441031456, 1.3910086154937744, -0.0317775160074234, 0.22706709802150726, -0.1461666077375412, 0.3493274450302124, 0.10746606439352036], [0.39207902550697327, -0.5795339345932007, -0.4476009011268616, -0.3386789560317993, -2.5745186805725098, 0.7260928750038147, 0.6438466906547546], [-0.26333317160606384, -0.30707311630249023, 0.10895679146051407, 0.1706494837999344, 0.03584069758653641, 0.25429102778434753, 1.312477707862854]], "rec.bias_ih_l0": [0.33934080600738525, 0.1585344672203064, 1.1308300495147705, 0.3562610447406769, 0.5706630945205688, 0.8632686734199524, 0.31587639451026917, 1.0462746620178223, 1.6749683618545532, -0.8555242419242859, -0.3705514669418335, -0.888225793838501, -0.9180050492286682, 1.6032606363296509, 0.0236740130931139, 0.22037039697170258, -0.11387638002634048, 0.07880625873804092, -0.23752272129058838, 0.25065720081329346, 0.10860204696655273], "rec.bias_hh_l0": [0.3538208305835724, 0.08129138499498367, 1.1314467191696167, 0.3914692997932434, 0.6671569347381592, 0.799528181552887, 0.27881577610969543, 1.0587799549102783, 1.6701747179031372, -0.8555242419242859, -0.3705514669418335, -0.888225793838501, -0.9180050492286682, 1.589563250541687, -0.2563202977180481, 0.2909983992576599, 0.242084801197052, -0.28892162442207336, -0.24263118207454681, 0.026788746938109398, -0.09121408313512802], "lin.weight": [[-0.6156527996063232, -0.13378062844276428, 0.014507286250591278, -0.46456748247146606, -0.9056115746498108, 0.08727709949016571, -0.10564010590314865]], "lin.bias": [-0.059779610484838486]}}